-8 5 -7 
22 10 -36 
37 -5 -12 

7 24 25 
0 12 6 
18 13 -13 

5 -7 -12 
12 8 5 
12 6 -3 

-6 -5 51 
-22 -20 -10 
-4 14 -2 

14 -1 13 
5 10 6 
-1 1 11 

14 15 -9 
-2 12 14 
15 -3 -7 

-11 -18 18 
-17 12 4 
-2 -20 -15 

37 30 -22 
-15 34 -23 
-12 -13 -33 

3 24 22 
14 -8 -11 
-3 -35 41 

-42 27 -47 
16 16 50 
-3 -52 -46 

0 -19 15 
-5 30 -31 
-7 -3 -28 

-19 -3 -10 
9 10 -16 
-21 23 -9 

27 -21 12 
25 -25 -21 
-27 17 4 

-3 -11 2 
16 26 -26 
15 -6 21 

16 -15 -5 
18 5 -4 
12 -13 -1 

18 -2 -13 
-4 -11 3 
19 34 45 

-16 -72 3 
55 22 -128 
-37 106 10 

11 -19 1 
2 22 17 
28 -10 23 

-2 16 -3 
-21 19 -5 
-5 10 12 

20 13 -14 
27 -20 -13 
-8 -15 27 

8 -6 16 
15 -2 0 
-2 6 13 

9 -6 29 
5 -15 -6 
17 31 -11 

17 4 12 
1 -6 6 
10 19 -16 

19 8 3 
12 11 -7 
17 -2 4 

-25 -21 26 
-30 28 25 
-9 -2 24 

-4 -2 15 
-16 31 6 
-11 -30 -28 

3 2 5 
10 9 4 
16 7 14 

-17 -18 17 
12 9 -45 
47 -14 3 

2 28 51 
1 -12 41 
-29 17 -49 

-23 -18 -38 
37 3 26 
-2 41 48 

2 -32 18 
2 4 -16 
-13 25 -43 

-21 -56 33 
14 25 44 
-43 18 -77 

