-63 -46 -73 -1 1 67 -37 
3 -58 -51 -36 7 -62 44 
-30 0 64 -42 12 55 -26 
-46 46 5 -17 21 -44 -95 
-53 -99 3 37 22 24 -1 
-38 71 20 -101 -67 -43 28 
8 30 62 -61 -23 -39 18 
-15 -12 10 16 81 -27 -23 
80 -61 -54 23 -30 66 75 
63 -7 -73 -76 72 -62 -33 
-34 79 -84 -19 -72 29 -56 

35 23 15 36 43 -19 -17 
-29 -22 -33 -21 34 -17 -31 
-23 1 14 -36 27 -45 12 
6 -35 11 41 -7 -10 -13 
46 5 -35 -1 41 30 -40 
32 -13 -35 32 34 29 -38 
42 23 -30 14 -11 18 36 
52 19 20 30 -40 -20 44 
40 4 28 23 7 -2 40 
14 -18 -16 -19 16 25 51 
-15 -13 27 21 -4 23 -7 

-3 50 -4 8 -17 57 -60 
3 -49 9 -18 59 11 -32 
-47 -43 -12 -45 -8 -68 20 
41 5 -9 71 -47 52 54 
20 -51 -60 -58 22 34 -50 
39 41 33 -58 30 0 59 
13 7 51 -62 -50 57 27 
89 -50 -35 49 25 -39 -22 
-40 39 -68 72 -68 54 -14 
83 50 -47 45 -20 -22 34 
52 -63 -73 -3 -12 -32 4 

10 49 -40 13 36 50 69 
-29 -20 25 28 -35 -59 63 
-26 44 51 5 -38 -15 53 
27 -21 -2 66 46 22 45 
5 34 -45 -37 -27 -30 -9 
32 -59 42 -20 9 -36 70 
62 -19 -15 -17 -37 53 0 
-12 10 -46 35 -15 -13 22 
26 29 -35 -37 15 20 -41 
51 -54 -61 37 15 -49 3 
78 35 -1 46 57 -41 63 

-15 -52 -39 27 -38 -67 17 
-8 1 -10 -27 -64 -56 6 
27 -35 9 57 -62 -9 -9 
-7 12 -13 -48 -57 73 -49 
27 -72 64 -66 1 -31 37 
34 -46 3 34 -28 69 42 
22 56 38 -2 -41 6 0 
5 -73 -54 -30 -5 -10 -63 
3 -34 -67 -9 -53 57 38 
63 -9 -56 11 25 -25 43 
-5 -3 -64 -29 -20 -28 -18 

-77 -84 -45 65 65 23 -57 
-75 -62 62 -52 46 52 -22 
63 -54 11 -40 21 -67 7 
58 57 -62 -64 -13 -47 40 
59 -16 -44 -9 60 -62 18 
96 38 -61 -21 -45 -25 42 
53 61 57 52 -68 -64 74 
88 66 -45 52 -48 -53 11 
-41 -59 0 -61 19 59 -85 
13 30 25 -66 -3 75 -58 
-46 -33 -67 31 -51 22 33 

-36 21 -28 -26 -18 -3 18 
37 -17 21 25 3 41 -47 
51 9 -54 -27 -25 -61 28 
-30 -35 3 -31 -28 -46 39 
-27 0 -54 11 46 40 23 
54 29 8 -25 7 -53 -15 
32 -44 -49 -8 17 -20 5 
60 21 38 -29 18 -26 -24 
3 -1 45 24 71 -60 47 
33 44 -2 14 -11 -32 -32 
-11 -40 38 -10 75 -34 -40 

-18 22 -26 53 7 56 13 
-41 -41 15 -19 49 8 28 
-23 -45 47 38 -35 -5 37 
55 -21 62 -19 37 -4 15 
60 -20 -30 -38 -8 13 -33 
30 15 4 3 -31 -15 32 
80 -24 11 -2 -17 -39 -30 
-10 -34 38 -29 -39 -30 3 
33 46 4 37 14 43 -37 
8 -46 -13 -2 10 3 1 
-12 5 22 -3 -45 11 21 

75 -4 66 -2 44 -106 47 
-56 -24 -28 55 26 -39 -26 
39 -50 -38 93 -70 1 -58 
24 49 -76 95 -3 -5 47 
-23 -118 32 16 2 -51 74 
-29 22 -25 64 53 62 85 
-80 -34 -63 2 71 -7 81 
-50 -35 -15 -55 -103 -115 -49 
-84 43 -42 60 -61 4 -48 
97 -47 -35 103 -61 -74 65 
106 -100 12 106 -26 -122 88 

44 5 -17 3 -28 42 -9 
49 17 -45 -15 21 41 9 
43 45 13 -27 27 44 1 
-10 -6 35 9 24 -14 -2 
23 31 44 40 37 -31 -2 
-24 -45 11 39 -6 -7 37 
-7 10 7 35 37 38 -6 
-17 -5 -20 17 -29 39 -2 
11 -35 40 8 31 39 13 
43 38 -2 -43 2 17 27 
-4 27 44 -14 40 24 -21 

-17 31 -59 -22 -30 43 -17 
2 8 -22 -10 39 -31 40 
14 -19 -14 42 47 48 -7 
43 -55 -52 -22 28 27 -43 
27 -54 41 -32 25 33 -39 
45 -44 -50 1 16 39 48 
12 27 51 43 -42 -45 23 
0 -28 -39 -25 38 -20 6 
18 -44 6 -23 48 -23 -33 
-4 -53 31 -63 -14 21 10 
24 10 -2 -6 14 45 38 

-9 -23 43 1 65 27 51 
30 19 -47 25 64 -2 40 
-60 10 1 26 61 -42 -59 
-39 33 -24 -55 9 -31 -55 
-73 22 -32 30 -11 23 13 
-29 29 31 13 -6 23 -59 
-40 27 16 26 68 -15 -44 
30 -24 29 50 -7 22 14 
25 -55 5 5 24 -44 55 
-23 54 -22 23 0 -10 -23 
-14 -34 41 48 56 -24 54 

-10 13 -8 -15 68 -34 32 
45 50 23 32 -26 60 64 
-59 -14 0 -30 -15 59 -4 
-2 30 -30 -40 -5 -32 -40 
43 27 39 -12 26 42 35 
-56 74 31 16 2 51 -43 
18 -24 16 17 -54 15 -42 
25 53 -6 1 25 24 -54 
-15 59 -75 -22 -9 10 -10 
-50 44 9 -24 68 8 -41 
-47 -13 -41 1 -29 14 -43 

-3 -34 -43 -18 -20 -50 -45 
52 27 26 99 -38 -32 -83 
18 3 -57 47 -14 -20 -43 
98 86 -68 97 40 58 -19 
4 -68 1 -62 -73 -30 -69 
8 -85 -1 44 63 -8 -8 
40 5 29 55 -110 -48 66 
-44 -82 -34 0 53 -9 47 
60 77 45 -23 -95 -34 -23 
-38 18 -81 -8 38 57 58 
43 -4 -87 -30 -63 44 67 

77 -12 97 -10 -80 -75 38 
79 59 77 88 104 -52 -51 
-6 51 99 44 -34 64 -128 
-83 -67 -58 -84 112 -34 53 
-15 -52 -39 64 86 -58 -36 
89 65 25 -86 107 93 -100 
-52 0 31 -10 -2 3 94 
-75 42 -111 90 7 -47 -3 
-89 64 -31 12 9 13 -62 
7 56 -7 50 69 -92 25 
-91 -27 -16 12 11 -50 -49 

-93 -71 39 40 53 90 -65 
-40 -55 -29 -23 60 73 -3 
-57 32 20 -59 17 -7 35 
59 56 66 12 4 -52 -79 
20 13 21 -36 -52 -42 -65 
-45 0 -13 49 60 -73 -17 
-40 76 67 -58 18 -66 -99 
-34 88 0 -29 25 -64 -31 
19 34 22 -45 14 59 2 
51 20 67 -29 32 26 -71 
-58 36 -78 64 37 66 -6 

8 -19 -4 -5 -19 1 23 
43 -19 -8 -28 15 18 -16 
-25 28 -6 0 21 -2 1 
25 16 27 -24 -34 2 8 
-8 -9 29 -28 26 -40 0 
47 19 -14 -10 -11 2 -9 
30 2 -16 -3 2 -46 -32 
29 -27 12 -35 -37 35 19 
15 39 17 7 -4 27 -9 
0 15 34 -19 -6 18 30 
26 19 -27 12 17 -11 -23 

-15 -22 -27 50 -37 -11 17 
27 -33 28 17 12 22 -17 
-40 43 1 41 42 9 -20 
-17 -1 50 45 39 47 4 
-5 32 48 -37 46 -29 -26 
-26 50 -17 40 21 -6 -32 
-9 -2 -11 45 -31 6 -50 
-17 -41 33 20 40 -25 -32 
-37 -40 44 -34 26 21 2 
-42 -6 14 -34 -40 -31 38 
-39 12 27 32 -36 48 30 

18 -36 -37 31 -20 -37 69 
-69 -12 5 -28 56 -79 38 
35 59 -45 -76 40 4 -72 
4 -48 21 9 -40 -62 76 
-80 32 15 34 -91 35 21 
-71 -70 83 -35 -66 30 -17 
2 -49 -1 -51 -59 59 86 
9 63 91 -80 -75 -47 89 
-48 52 96 60 32 47 26 
4 -5 39 -29 -32 -2 64 
53 -55 36 -13 37 -82 71 

-36 0 -59 37 -25 66 68 
69 -32 -18 -12 71 -48 -77 
-34 44 0 -70 63 -70 -61 
-14 -14 28 9 -27 64 12 
36 22 -55 -47 13 58 57 
-62 72 50 -78 -36 72 -34 
-61 48 -42 45 13 31 12 
-32 -18 -77 -17 40 -60 -2 
-36 47 67 -17 -65 -37 11 
-24 34 67 16 -59 -21 20 
0 -25 69 76 93 -34 17 

-25 51 8 -26 69 -8 53 
47 -40 -84 37 -55 61 72 
55 -65 36 -28 -11 -47 45 
-15 -64 18 -36 31 -13 28 
-26 -4 -58 26 84 41 -30 
47 -59 -15 -5 63 -43 -56 
11 49 -38 45 -20 -28 74 
36 3 75 -37 -78 1 33 
-25 -43 -71 -6 35 -58 65 
-37 -103 55 -58 17 51 30 
24 24 -33 -41 58 -63 -35 

33 39 -37 -36 14 47 -4 
-20 11 -5 7 -8 -3 -31 
17 35 35 -33 32 -19 -31 
-16 32 46 38 24 -33 19 
47 8 -2 -32 32 2 30 
-32 -1 -13 42 2 -7 -19 
10 35 -5 1 45 -37 -11 
3 32 -40 -1 29 -5 -15 
49 6 32 39 -20 20 -36 
33 -26 46 -13 -4 -2 -2 
33 -10 -27 -8 11 -8 -1 

34 -56 47 46 -59 -60 16 
-57 -85 -14 -41 -85 -37 -34 
19 -28 86 -49 -18 -71 62 
7 -49 -29 -73 2 -62 -19 
16 68 45 3 -113 56 -41 
64 12 -26 -65 -118 11 59 
27 18 40 72 0 -116 -117 
22 -75 -57 -27 -73 -11 55 
-74 37 -32 29 42 -77 -44 
-99 88 54 57 -73 -86 -30 
65 11 -97 38 -50 37 42 

44 -39 46 28 -64 -12 -76 
13 40 26 -4 -66 0 -9 
-71 57 -66 -44 43 -38 -65 
-65 -4 -68 -13 7 9 13 
-26 62 -2 37 -14 -72 55 
-54 -52 -39 -12 15 -5 32 
-28 22 -62 -17 -44 -52 -56 
55 -14 -61 -57 64 15 56 
-12 49 23 -23 12 -36 9 
51 22 -9 -8 62 -1 -71 
-27 -40 -55 52 13 15 48 

-18 29 -14 -10 5 15 26 
4 -32 15 7 -16 28 19 
-22 -34 -27 6 -38 -5 31 
4 17 -32 -16 19 3 -26 
-28 25 -34 25 -15 -4 26 
-32 1 30 -23 27 23 31 
-19 5 33 -9 -22 -1 11 
10 18 12 7 -5 -24 14 
-18 -29 4 0 -16 15 32 
-31 9 8 38 -22 -3 -22 
-39 14 -15 11 33 18 -32 

31 -45 8 12 38 3 14 
64 54 -20 4 -20 49 -62 
71 -26 39 41 24 -32 17 
-27 -57 -16 -31 -33 -38 14 
53 42 -25 39 53 -41 17 
2 -21 41 42 32 11 11 
28 -7 32 -22 -55 29 37 
21 -9 -29 12 19 40 -14 
-45 23 19 -19 43 -46 40 
22 -55 46 34 25 -8 40 
-48 -7 -45 -27 -32 -56 24 

3 39 -54 78 19 30 -1 
-111 -9 -73 -33 30 -31 64 
-37 18 -33 7 26 -68 -75 
-12 27 51 15 38 3 -27 
-16 45 -56 -55 -66 4 -43 
40 48 62 -9 20 8 66 
71 73 66 36 -43 40 42 
56 -41 44 -7 3 3 -45 
77 58 -15 -10 62 -73 -53 
1 -55 66 49 -77 52 16 
29 32 43 -51 -1 30 28 

61 31 8 -28 6 -18 -23 
-23 68 -40 -18 56 67 38 
3 -57 -24 -43 -8 63 -49 
10 6 -52 -60 49 -38 23 
-34 77 33 12 -41 10 15 
-28 24 -21 5 0 65 16 
-49 -5 -25 11 33 45 47 
34 -1 -80 42 -6 86 -58 
-41 -46 55 25 -17 -12 62 
-38 -66 -59 75 14 35 -55 
42 49 -79 -31 -44 53 -20 

-34 -4 -50 10 -28 -20 69 
89 -23 19 57 20 -56 -89 
-57 20 -21 -3 -18 42 1 
-32 23 29 37 42 -76 75 
53 -43 20 17 0 -54 79 
-55 64 44 59 37 -9 -29 
-40 6 81 -12 62 7 -2 
49 -32 -20 -61 31 -58 -73 
-58 41 91 -11 -17 13 71 
-50 49 -31 -20 -1 20 -8 
-60 104 73 52 44 -27 14 

19 -36 -14 30 -29 82 -10 
1 37 -64 -43 14 83 2 
15 42 8 -7 8 75 -82 
-53 98 -28 -27 44 12 73 
-70 70 0 57 -84 -73 41 
-55 -10 66 68 -47 58 -44 
83 -70 105 19 66 18 63 
10 -19 -57 -54 -101 62 39 
-14 5 -15 20 -22 14 52 
-92 82 88 -70 71 17 -85 
73 80 -51 -76 22 34 79 

9 -57 -37 -62 6 -31 -68 
20 1 -49 -31 24 -37 -45 
51 -43 52 25 52 -37 76 
-53 -57 18 -76 42 -11 -13 
-26 -73 64 50 -23 30 50 
-60 30 -3 -22 30 80 -2 
61 7 -8 -77 0 22 -60 
18 -44 31 16 -52 -51 -48 
-63 -18 1 42 -6 -15 -64 
43 36 -24 -26 5 -5 66 
-36 -78 -28 -53 -39 -16 3 

-43 5 -16 16 24 19 47 
37 0 46 -21 6 -5 -56 
14 -42 -7 14 -7 57 -23 
20 -17 -37 -8 42 -47 -39 
-45 6 -14 -5 3 -52 0 
-27 14 -57 -28 -58 30 6 
-60 3 -42 -25 -64 -7 -15 
32 -20 2 -4 18 -43 -30 
-13 -23 -28 -36 48 48 -50 
11 -57 -52 -29 -39 32 -5 
-8 -51 -5 -4 -29 -4 -58 

